digraph Tree {
node [shape=box, style="filled, rounded", color="black", fontname="helvetica"] ;
edge [fontname="helvetica"] ;
0 [label="bench <= 20.5\ngini = 0.452\nsamples = 1929\nvalue = [667, 1262]", fillcolor="#a2d1f3"] ;
1 [label="forty <= 4.565\ngini = 0.484\nsamples = 935\nvalue = [383, 552]", fillcolor="#c2e1f7"] ;
0 -> 1 [labeldistance=2.5, labelangle=45, headlabel="True"] ;
3 [label="forty <= 4.455\ngini = 0.408\nsamples = 423\nvalue = [121.0, 302.0]", fillcolor="#88c4ef"] ;
1 -> 3 ;
7 [label="gini = 0.287\nsamples = 150\nvalue = [26, 124]", fillcolor="#63b2ea"] ;
3 -> 7 ;
8 [label="shuttle <= 4.245\ngini = 0.454\nsamples = 273\nvalue = [95, 178]", fillcolor="#a3d1f3"] ;
3 -> 8 ;
17 [label="gini = 0.402\nsamples = 147\nvalue = [41, 106]", fillcolor="#86c3ef"] ;
8 -> 17 ;
18 [label="gini = 0.49\nsamples = 126\nvalue = [54, 72]", fillcolor="#cee6f8"] ;
8 -> 18 ;
4 [label="bench <= 18.5\ngini = 0.5\nsamples = 512\nvalue = [262, 250]", fillcolor="#fef9f6"] ;
1 -> 4 ;
9 [label="broad_jump <= 116.5\ngini = 0.493\nsamples = 353\nvalue = [197, 156]", fillcolor="#fae5d6"] ;
4 -> 9 ;
11 [label="shuttle <= 4.405\ngini = 0.461\nsamples = 194\nvalue = [124.0, 70.0]", fillcolor="#f4c8a9"] ;
9 -> 11 ;
29 [label="gini = 0.447\nsamples = 98\nvalue = [65, 33]", fillcolor="#f2c19e"] ;
11 -> 29 ;
30 [label="gini = 0.474\nsamples = 96\nvalue = [59, 37]", fillcolor="#f5d0b5"] ;
11 -> 30 ;
12 [label="gini = 0.497\nsamples = 159\nvalue = [73, 86]", fillcolor="#e1f0fb"] ;
9 -> 12 ;
10 [label="gini = 0.483\nsamples = 159\nvalue = [65, 94]", fillcolor="#c2e1f7"] ;
4 -> 10 ;
2 [label="cone <= 7.955\ngini = 0.408\nsamples = 994\nvalue = [284, 710]", fillcolor="#88c4ef"] ;
0 -> 2 [labeldistance=2.5, labelangle=-45, headlabel="False"] ;
5 [label="cone <= 6.955\ngini = 0.384\nsamples = 872\nvalue = [226, 646]", fillcolor="#7ebfee"] ;
2 -> 5 ;
13 [label="gini = 0.215\nsamples = 98\nvalue = [12, 86]", fillcolor="#55abe9"] ;
5 -> 13 ;
14 [label="bench <= 27.5\ngini = 0.4\nsamples = 774\nvalue = [214.0, 560.0]", fillcolor="#85c2ef"] ;
5 -> 14 ;
15 [label="vertical <= 28.25\ngini = 0.431\nsamples = 554\nvalue = [174, 380]", fillcolor="#94caf1"] ;
14 -> 15 ;
19 [label="gini = 0.483\nsamples = 98\nvalue = [40, 58]", fillcolor="#c2e1f7"] ;
15 -> 19 ;
20 [label="cone <= 7.485\ngini = 0.415\nsamples = 456\nvalue = [134, 322]", fillcolor="#8bc6f0"] ;
15 -> 20 ;
21 [label="cone <= 7.145\ngini = 0.442\nsamples = 333\nvalue = [110, 223]", fillcolor="#9bcdf2"] ;
20 -> 21 ;
23 [label="gini = 0.39\nsamples = 128\nvalue = [34, 94]", fillcolor="#81c0ee"] ;
21 -> 23 ;
24 [label="vertical <= 32.75\ngini = 0.467\nsamples = 205\nvalue = [76, 129]", fillcolor="#aed7f4"] ;
21 -> 24 ;
27 [label="gini = 0.433\nsamples = 98\nvalue = [31, 67]", fillcolor="#95caf1"] ;
24 -> 27 ;
28 [label="gini = 0.487\nsamples = 107\nvalue = [45.0, 62.0]", fillcolor="#c9e4f8"] ;
24 -> 28 ;
22 [label="gini = 0.314\nsamples = 123\nvalue = [24, 99]", fillcolor="#69b5eb"] ;
20 -> 22 ;
16 [label="bench <= 30.5\ngini = 0.298\nsamples = 220\nvalue = [40, 180]", fillcolor="#65b3eb"] ;
14 -> 16 ;
25 [label="gini = 0.352\nsamples = 123\nvalue = [28, 95]", fillcolor="#73baed"] ;
16 -> 25 ;
26 [label="gini = 0.217\nsamples = 97\nvalue = [12, 85]", fillcolor="#55abe9"] ;
16 -> 26 ;
6 [label="gini = 0.499\nsamples = 122\nvalue = [58, 64]", fillcolor="#ecf6fd"] ;
2 -> 6 ;
}