digraph Tree {
node [shape=box, style="filled, rounded", color="black", fontname="helvetica"] ;
edge [fontname="helvetica"] ;
0 [label="bench <= 20.5\ngini = 0.448\nsamples = 1929\nvalue = [654, 1275]", fillcolor="#9fcff2"] ;
1 [label="forty <= 4.485\ngini = 0.485\nsamples = 930\nvalue = [385, 545]", fillcolor="#c5e2f7"] ;
0 -> 1 [labeldistance=2.5, labelangle=45, headlabel="True"] ;
3 [label="vertical <= 35.75\ngini = 0.32\nsamples = 220\nvalue = [44, 176]", fillcolor="#6ab6ec"] ;
1 -> 3 ;
11 [label="gini = 0.417\nsamples = 91\nvalue = [27, 64]", fillcolor="#8dc6f0"] ;
3 -> 11 ;
12 [label="gini = 0.229\nsamples = 129\nvalue = [17, 112]", fillcolor="#57ace9"] ;
3 -> 12 ;
4 [label="broad_jump <= 118.5\ngini = 0.499\nsamples = 710\nvalue = [341, 369]", fillcolor="#f0f8fd"] ;
1 -> 4 ;
5 [label="bench <= 15.5\ngini = 0.493\nsamples = 445\nvalue = [249.0, 196.0]", fillcolor="#f9e4d5"] ;
4 -> 5 ;
9 [label="gini = 0.457\nsamples = 156\nvalue = [101.0, 55.0]", fillcolor="#f3c6a5"] ;
5 -> 9 ;
10 [label="cone <= 7.16\ngini = 0.5\nsamples = 289\nvalue = [148, 141]", fillcolor="#fef9f6"] ;
5 -> 10 ;
13 [label="gini = 0.487\nsamples = 107\nvalue = [45.0, 62.0]", fillcolor="#c9e4f8"] ;
10 -> 13 ;
14 [label="forty <= 4.985\ngini = 0.491\nsamples = 182\nvalue = [103, 79]", fillcolor="#f9e2d1"] ;
10 -> 14 ;
29 [label="gini = 0.476\nsamples = 92\nvalue = [56, 36]", fillcolor="#f6d2b8"] ;
14 -> 29 ;
30 [label="gini = 0.499\nsamples = 90\nvalue = [47, 43]", fillcolor="#fdf4ee"] ;
14 -> 30 ;
6 [label="bench <= 14.5\ngini = 0.453\nsamples = 265\nvalue = [92, 173]", fillcolor="#a2d1f3"] ;
4 -> 6 ;
21 [label="gini = 0.481\nsamples = 109\nvalue = [44, 65]", fillcolor="#bfdff7"] ;
6 -> 21 ;
22 [label="gini = 0.426\nsamples = 156\nvalue = [48, 108]", fillcolor="#91c9f1"] ;
6 -> 22 ;
2 [label="cone <= 7.885\ngini = 0.394\nsamples = 999\nvalue = [269, 730]", fillcolor="#82c1ef"] ;
0 -> 2 [labeldistance=2.5, labelangle=-45, headlabel="False"] ;
7 [label="forty <= 4.655\ngini = 0.367\nsamples = 837\nvalue = [203, 634]", fillcolor="#78bced"] ;
2 -> 7 ;
15 [label="vertical <= 36.25\ngini = 0.292\nsamples = 237\nvalue = [42, 195]", fillcolor="#64b2eb"] ;
7 -> 15 ;
23 [label="gini = 0.237\nsamples = 131\nvalue = [18, 113]", fillcolor="#59ade9"] ;
15 -> 23 ;
24 [label="gini = 0.35\nsamples = 106\nvalue = [24, 82]", fillcolor="#73baed"] ;
15 -> 24 ;
16 [label="vertical <= 34.25\ngini = 0.393\nsamples = 600\nvalue = [161, 439]", fillcolor="#82c1ef"] ;
7 -> 16 ;
17 [label="bench <= 27.5\ngini = 0.373\nsamples = 500\nvalue = [124, 376]", fillcolor="#7abdee"] ;
16 -> 17 ;
19 [label="forty <= 4.885\ngini = 0.399\nsamples = 341\nvalue = [94.0, 247.0]", fillcolor="#84c2ef"] ;
17 -> 19 ;
25 [label="gini = 0.356\nsamples = 134\nvalue = [31, 103]", fillcolor="#75baed"] ;
19 -> 25 ;
26 [label="broad_jump <= 106.5\ngini = 0.423\nsamples = 207\nvalue = [63.0, 144.0]", fillcolor="#90c8f0"] ;
19 -> 26 ;
27 [label="gini = 0.356\nsamples = 108\nvalue = [25, 83]", fillcolor="#75bbed"] ;
26 -> 27 ;
28 [label="gini = 0.473\nsamples = 99\nvalue = [38, 61]", fillcolor="#b4daf5"] ;
26 -> 28 ;
20 [label="gini = 0.306\nsamples = 159\nvalue = [30.0, 129.0]", fillcolor="#67b4eb"] ;
17 -> 20 ;
18 [label="gini = 0.466\nsamples = 100\nvalue = [37, 63]", fillcolor="#add7f4"] ;
16 -> 18 ;
8 [label="gini = 0.483\nsamples = 162\nvalue = [66, 96]", fillcolor="#c1e0f7"] ;
2 -> 8 ;
}