digraph Tree {
node [shape=box, style="filled, rounded", color="black", fontname="helvetica"] ;
edge [fontname="helvetica"] ;
0 [label="bench <= 21.5\ngini = 0.45\nsamples = 1929\nvalue = [660, 1269]", fillcolor="#a0d0f3"] ;
1 [label="forty <= 4.565\ngini = 0.482\nsamples = 1037\nvalue = [421, 616]", fillcolor="#c0e0f7"] ;
0 -> 1 [labeldistance=2.5, labelangle=45, headlabel="True"] ;
3 [label="shuttle <= 4.205\ngini = 0.387\nsamples = 443\nvalue = [116, 327]", fillcolor="#7fc0ee"] ;
1 -> 3 ;
9 [label="shuttle <= 4.145\ngini = 0.298\nsamples = 225\nvalue = [41, 184]", fillcolor="#65b3eb"] ;
3 -> 9 ;
35 [label="shuttle <= 4.085\ngini = 0.333\nsamples = 147\nvalue = [31, 116]", fillcolor="#6eb7ec"] ;
9 -> 35 ;
37 [label="gini = 0.23\nsamples = 83\nvalue = [11, 72]", fillcolor="#57ace9"] ;
35 -> 37 ;
38 [label="gini = 0.43\nsamples = 64\nvalue = [20, 44]", fillcolor="#93caf1"] ;
35 -> 38 ;
36 [label="gini = 0.224\nsamples = 78\nvalue = [10, 68]", fillcolor="#56abe9"] ;
9 -> 36 ;
10 [label="bench <= 15.5\ngini = 0.451\nsamples = 218\nvalue = [75, 143]", fillcolor="#a1d0f3"] ;
3 -> 10 ;
17 [label="gini = 0.484\nsamples = 134\nvalue = [55, 79]", fillcolor="#c3e1f7"] ;
10 -> 17 ;
18 [label="gini = 0.363\nsamples = 84\nvalue = [20, 64]", fillcolor="#77bced"] ;
10 -> 18 ;
4 [label="bench <= 19.5\ngini = 0.5\nsamples = 594\nvalue = [305.0, 289.0]", fillcolor="#fef8f5"] ;
1 -> 4 ;
7 [label="forty <= 4.665\ngini = 0.493\nsamples = 430\nvalue = [241.0, 189.0]", fillcolor="#f9e4d4"] ;
4 -> 7 ;
15 [label="shuttle <= 4.225\ngini = 0.499\nsamples = 170\nvalue = [82.0, 88.0]", fillcolor="#f2f8fd"] ;
7 -> 15 ;
23 [label="gini = 0.488\nsamples = 83\nvalue = [35, 48]", fillcolor="#c9e4f8"] ;
15 -> 23 ;
24 [label="gini = 0.497\nsamples = 87\nvalue = [47, 40]", fillcolor="#fbece2"] ;
15 -> 24 ;
16 [label="bench <= 16.5\ngini = 0.475\nsamples = 260\nvalue = [159, 101]", fillcolor="#f6d1b7"] ;
7 -> 16 ;
19 [label="gini = 0.426\nsamples = 117\nvalue = [81, 36]", fillcolor="#f1b991"] ;
16 -> 19 ;
20 [label="broad_jump <= 111.5\ngini = 0.496\nsamples = 143\nvalue = [78, 65]", fillcolor="#fbeade"] ;
16 -> 20 ;
31 [label="gini = 0.479\nsamples = 78\nvalue = [47.0, 31.0]", fillcolor="#f6d4bc"] ;
20 -> 31 ;
32 [label="gini = 0.499\nsamples = 65\nvalue = [31, 34]", fillcolor="#eef6fd"] ;
20 -> 32 ;
8 [label="vertical <= 31.75\ngini = 0.476\nsamples = 164\nvalue = [64, 100]", fillcolor="#b8dcf6"] ;
4 -> 8 ;
21 [label="gini = 0.495\nsamples = 93\nvalue = [42.0, 51.0]", fillcolor="#dceefa"] ;
8 -> 21 ;
22 [label="gini = 0.428\nsamples = 71\nvalue = [22, 49]", fillcolor="#92c9f1"] ;
8 -> 22 ;
2 [label="shuttle <= 4.835\ngini = 0.392\nsamples = 892\nvalue = [239, 653]", fillcolor="#81c1ef"] ;
0 -> 2 [labeldistance=2.5, labelangle=-45, headlabel="False"] ;
5 [label="cone <= 6.975\ngini = 0.367\nsamples = 788\nvalue = [191, 597]", fillcolor="#78bced"] ;
2 -> 5 ;
11 [label="gini = 0.177\nsamples = 112\nvalue = [11, 101]", fillcolor="#4fa8e8"] ;
5 -> 11 ;
12 [label="bench <= 29.5\ngini = 0.391\nsamples = 676\nvalue = [180.0, 496.0]", fillcolor="#81c1ee"] ;
5 -> 12 ;
13 [label="broad_jump <= 102.5\ngini = 0.415\nsamples = 524\nvalue = [154, 370]", fillcolor="#8bc6f0"] ;
12 -> 13 ;
25 [label="gini = 0.464\nsamples = 90\nvalue = [33, 57]", fillcolor="#acd6f4"] ;
13 -> 25 ;
26 [label="forty <= 5.055\ngini = 0.402\nsamples = 434\nvalue = [121, 313]", fillcolor="#86c3ef"] ;
13 -> 26 ;
27 [label="broad_jump <= 120.5\ngini = 0.429\nsamples = 321\nvalue = [100, 221]", fillcolor="#93c9f1"] ;
26 -> 27 ;
29 [label="gini = 0.445\nsamples = 254\nvalue = [85, 169]", fillcolor="#9dcef2"] ;
27 -> 29 ;
30 [label="gini = 0.348\nsamples = 67\nvalue = [15, 52]", fillcolor="#72b9ec"] ;
27 -> 30 ;
28 [label="gini = 0.303\nsamples = 113\nvalue = [21, 92]", fillcolor="#66b3eb"] ;
26 -> 28 ;
14 [label="broad_jump <= 105.5\ngini = 0.284\nsamples = 152\nvalue = [26, 126]", fillcolor="#62b1ea"] ;
12 -> 14 ;
33 [label="gini = 0.36\nsamples = 68\nvalue = [16, 52]", fillcolor="#76bbed"] ;
14 -> 33 ;
34 [label="gini = 0.21\nsamples = 84\nvalue = [10, 74]", fillcolor="#54aae9"] ;
14 -> 34 ;
6 [label="gini = 0.497\nsamples = 104\nvalue = [48, 56]", fillcolor="#e3f1fb"] ;
2 -> 6 ;
}